{"HiddenLayer":[0.31226553528213996,0.15799227237479266,0.07180755134530346,0.25924990450493757,0.22064875517057328,0.06572768537885904,0.8872642668811527,0.9375907805643955,0.937626175039506,0.02533016304189965,0.8744541836687769,0.03314009790359782,0.9483618986950582,0.02452804720180205,0.6809316157255014,0.03725747906836332,1],"InputLayer":[0.4,0,1,1],"OutputLayer":[0.0002765578124242825,0.9941350302003661,0.005416655344967943,0.000065411847573097],"WeightHidden":[[-5.981492916775502,-0.22105024099118126,1.7095944687447937,-0.10657100459415192],[0.13002349811186575,-0.3212216759641593,-1.147834397828188,-0.5774182504431948],[0.7391126097511643,-0.2942243676931116,-3.8476038727223854,0.9927096827592801],[-0.24106187132361193,0.6785531989598098,-0.6995778460220128,-0.25386705495758305],[-0.4958080430729843,-0.6222545207567355,-2.4811001981963794,1.4175277211440611],[1.2614311239575042,0.24578980006684423,-3.411607935348876,0.2527874357891196],[0.3599082723419324,0.04508026465917261,1.284745722904397,0.6343816294870168],[-12.839561651717046,-2.7975386054312676,4.942884428293216,2.9025514674191735],[-0.1593483182061384,-0.6476950634747031,3.0398744183356614,-0.2659333260218338],[1.2411636616677033,0.5069379556025339,-4.802615681634541,0.6560473985180864],[13.236456032716076,4.018485833479612,-3.684931912237901,0.33131812616339407],[1.7350931544351913,0.5568658612904365,-3.964793528621084,-0.10255457302001805],[1.2438618941978266,-1.7867530728229868,1.5192350720410819,0.8936901292299982],[1.7200601797404416,0.9667759896889003,-4.195232951390926,-0.17589635562465009],[5.089885052631944,2.9329827101681443,-2.156390056176649,0.8785194668912386],[12.536951670719247,3.3053251171767846,-4.674500576898677,-3.59222592777721],[0.41750202300701744,-0.06838119636147644,-0.6850911882701386,0.743961256286439]],"WeightOutput":[[-3.920019150887756,-0.2840539722458848,-3.4193694128135625,-0.1968192387559913,-2.3988604641985973,-2.168564809068394,0.06036980322768688,-9.466165138864637,1.443338470972031,-4.674417706673489,2.626092244125617,-3.310021383662858,-0.3168133635518368,-3.5048812523990027,-0.03864972985329323,7.4012208989896235,-0.4182487763726401],[-2.521655855992924,-0.5837823271154526,0.2690264179351769,0.06275942615608293,-1.1306942684822439,-1.255544791379541,-3.4033130458558927,7.955594094143176,-2.6461247390522478,-0.6134075270812567,11.778784471932449,-1.8630341480952037,-4.702277803960688,-2.231135165795938,3.3977623852067937,-10.618282380715229,-3.275938972252037],[4.420845230415082,-0.6442026269119684,0.3365517890093445,-0.27870581111890264,0.9369342129579781,-1.0840934863260887,-0.8557923383339804,4.673565627124421,0.11496720175221671,-0.2797980941985032,-8.895471670174258,0.3046205320515618,0.016744544517445885,0.3173110681319378,-3.810439239681077,-2.4230738757303807,0.1275854330607396],[-1.8150586667518214,0.829069386026728,2.2682053236720394,-0.3867118970411936,1.1846306054789306,2.4800343961481364,-0.8015648061511106,-2.3102124966414364,-3.235694133828848,2.569834369876542,0.4629829888293403,1.9714260040794878,-2.1758420703857926,2.054253959740018,-0.678039882057205,1.3268112816666857,-1.884777175020545]],"ErrOutput":[0.0002765578124242825,-0.005864969799633912,0.005416655344967943,0.000065411847573097],"ErrHidden":[0.00021492923814772681,0.0000011463825566624204,3.696203019228244e-7,-0.00001029566421792434,0.0000658280197147677,0.00001114442144233044,0.00009140872668324291,-0.0001364033164739728,0.00009393913250119698,0.000012464898825319743,-0.0006621663653180536,0.00007235311525598559,0.00016125529560549832,0.00008529652095482125,-0.00022738909508656995,0.00029296749580074686,0],"LastChangeHidden":[[0.0000045964197832291495,-6.197549252007754e-8,0.000011476146765175217,0.00001147732839623039],[2.872255910767682e-8,4.6323283562142645e-8,8.433902278073009e-8,8.41068136525244e-8],[-4.285285971118898e-8,-1.4864642478461215e-7,-1.4242831084318868e-7,-1.4320552293586365e-7],[-2.1450384565299138e-7,-5.6436881093373547e-8,-5.506761904286488e-7,-5.506253044579762e-7],[0.0000011086867943234933,-7.532272090164403e-8,0.000002754667891663353,0.000002753991469452557],[6.141020870764943e-8,-2.079371820973705e-8,1.503149427809761e-7,1.4953386125283753e-7],[0.0000010328238154431598,3.953589028421013e-7,0.0000026805585729377056,0.0000026814244273743653],[-0.0000016933302601945338,-0.000003000682630076255,-0.000004987683926023767,-0.000004996078196974349],[6.761829802376798e-7,4.181068410723734e-7,0.0000017913995031993063,0.00000179300780074913],[-2.6961923061481687e-9,-1.0887827075212157e-7,-3.1913277550686203e-8,-3.274386733480462e-8],[-0.000007302393898369172,-1.0956855395560517e-7,-0.000018283367724763973,-0.000018283378015399477],[2.2390563796104152e-7,-2.3984255422344187e-8,5.556059860322078e-7,5.548855937348376e-7],[0.000001094894011317145,0.00000101858378590603,0.0000029916780682151,0.0000029931107140957256],[1.9940071027811023e-7,-1.2881804578636047e-8,4.973285676010184e-7,4.96529573558655e-7],[-0.000004985592783795218,-1.5155551605028226e-7,-0.000012502041235092606,-0.000012502395697793476],[0.000002017670559946707,0.0000032429957855129216,0.000005859995008748559,0.000005870133607995604],[0,0,0,0]],"LastChangeOutput":[[3.288409187179776e-7,9.925624920584993e-8,4.31474969943105e-8,3.4071940775701464e-7,1.1633114982734092e-7,6.137348497190426e-8,7.367140196758695e-7,6.402811643978943e-7,7.379312912702286e-7,3.0839965322654856e-8,8.195077142838307e-7,4.0021312024673195e-8,6.105118290563883e-7,4.378310969082064e-8,7.913030557256878e-7,1.883073254763533e-7,8.296953328751161e-7],[-0.0000031300356000439967,-0.0000014874675765390448,-6.726936786277779e-7,-0.0000026940971663068473,-0.0000020456525852163737,-6.469123390859196e-7,-0.000008606973548324866,-0.000008903108469788313,-0.000009038100624768028,-2.5903761196562803e-7,-0.000008615616177186548,-3.387224293912169e-7,-0.000008947352700103308,-2.7071589176729666e-7,-0.0000069262860249919546,-5.809323820475397e-7,-0.000009700020226772872],[0.0000022786792249040598,0.0000011527828914126112,5.239357548201408e-7,0.0000018919415245925414,0.0000016099100786747333,4.79616141688295e-7,0.000006474222870091587,0.0000068411844834516816,0.000006841628938465954,1.848475670413336e-7,0.000006380932088910022,2.418405793665435e-7,0.000006919707036052819,1.7902051117806297e-7,0.000004969077511181824,2.7216016246979547e-7,0.000007296835489370958],[6.394998063037332e-10,-3.306363133148462e-10,-1.2390716454669823e-9,1.0098542837890875e-10,-7.898217361664072e-10,-1.1795899951527002e-9,1.037294285366392e-9,1.5971651869433142e-9,1.6465442880862997e-9,-1.339214599974773e-9,6.855644893595439e-10,-1.2657561251301788e-9,7.46369853340781e-10,-1.2549935812342087e-9,4.450006080993011e-10,-8.023413507064089e-10,8.260764703774155e-10]],"Regression":false,"Rate1":0.25,"Rate2":0.1}
57865e-8]],"Regression":false,"Rate1":0.25,"Rate2":0.1}
